digraph Tree {
node [shape=box, fontname="helvetica"] ;
edge [fontname="helvetica"] ;
0 [label="sepal length <= 5.55\ngini = 0.661\nsamples = 105\nvalue = [34, 30, 41]"] ;
1 [label="sepal width <= 2.75\ngini = 0.267\nsamples = 39\nvalue = [33, 5, 1]"] ;
0 -> 1 [labeldistance=2.5, labelangle=45, headlabel="True"] ;
2 [label="sepal length <= 4.95\ngini = 0.5\nsamples = 6\nvalue = [1, 4, 1]"] ;
1 -> 2 ;
3 [label="sepal width <= 2.4\ngini = 0.5\nsamples = 2\nvalue = [1, 0, 1]"] ;
2 -> 3 ;
4 [label="gini = 0.0\nsamples = 1\nvalue = [1, 0, 0]"] ;
3 -> 4 ;
5 [label="gini = 0.0\nsamples = 1\nvalue = [0, 0, 1]"] ;
3 -> 5 ;
6 [label="gini = 0.0\nsamples = 4\nvalue = [0, 4, 0]"] ;
2 -> 6 ;
7 [label="sepal length <= 5.35\ngini = 0.059\nsamples = 33\nvalue = [32, 1, 0]"] ;
1 -> 7 ;
8 [label="gini = 0.0\nsamples = 27\nvalue = [27, 0, 0]"] ;
7 -> 8 ;
9 [label="sepal width <= 3.2\ngini = 0.278\nsamples = 6\nvalue = [5, 1, 0]"] ;
7 -> 9 ;
10 [label="gini = 0.0\nsamples = 1\nvalue = [0, 1, 0]"] ;
9 -> 10 ;
11 [label="gini = 0.0\nsamples = 5\nvalue = [5, 0, 0]"] ;
9 -> 11 ;
12 [label="sepal length <= 6.15\ngini = 0.489\nsamples = 66\nvalue = [1, 25, 40]"] ;
0 -> 12 [labeldistance=2.5, labelangle=-45, headlabel="False"] ;
13 [label="sepal width <= 3.9\ngini = 0.469\nsamples = 24\nvalue = [1, 16, 7]"] ;
12 -> 13 ;
14 [label="sepal width <= 3.1\ngini = 0.423\nsamples = 23\nvalue = [0, 16, 7]"] ;
13 -> 14 ;
15 [label="sepal width <= 2.55\ngini = 0.444\nsamples = 21\nvalue = [0, 14, 7]"] ;
14 -> 15 ;
16 [label="sepal length <= 5.65\ngini = 0.5\nsamples = 4\nvalue = [0, 2, 2]"] ;
15 -> 16 ;
17 [label="gini = 0.0\nsamples = 1\nvalue = [0, 1, 0]"] ;
16 -> 17 ;
18 [label="sepal width <= 2.35\ngini = 0.444\nsamples = 3\nvalue = [0, 1, 2]"] ;
16 -> 18 ;
19 [label="gini = 0.5\nsamples = 2\nvalue = [0, 1, 1]"] ;
18 -> 19 ;
20 [label="gini = 0.0\nsamples = 1\nvalue = [0, 0, 1]"] ;
18 -> 20 ;
21 [label="sepal length <= 5.75\ngini = 0.415\nsamples = 17\nvalue = [0, 12, 5]"] ;
15 -> 21 ;
22 [label="sepal length <= 5.65\ngini = 0.278\nsamples = 6\nvalue = [0, 5, 1]"] ;
21 -> 22 ;
23 [label="sepal width <= 2.75\ngini = 0.444\nsamples = 3\nvalue = [0, 2, 1]"] ;
22 -> 23 ;
24 [label="gini = 0.0\nsamples = 1\nvalue = [0, 1, 0]"] ;
23 -> 24 ;
25 [label="sepal width <= 2.85\ngini = 0.5\nsamples = 2\nvalue = [0, 1, 1]"] ;
23 -> 25 ;
26 [label="gini = 0.0\nsamples = 1\nvalue = [0, 0, 1]"] ;
25 -> 26 ;
27 [label="gini = 0.0\nsamples = 1\nvalue = [0, 1, 0]"] ;
25 -> 27 ;
28 [label="gini = 0.0\nsamples = 3\nvalue = [0, 3, 0]"] ;
22 -> 28 ;
29 [label="sepal width <= 2.95\ngini = 0.463\nsamples = 11\nvalue = [0, 7, 4]"] ;
21 -> 29 ;
30 [label="sepal length <= 5.9\ngini = 0.42\nsamples = 10\nvalue = [0, 7, 3]"] ;
29 -> 30 ;
31 [label="sepal width <= 2.75\ngini = 0.48\nsamples = 5\nvalue = [0, 3, 2]"] ;
30 -> 31 ;
32 [label="sepal width <= 2.65\ngini = 0.375\nsamples = 4\nvalue = [0, 3, 1]"] ;
31 -> 32 ;
33 [label="gini = 0.0\nsamples = 1\nvalue = [0, 1, 0]"] ;
32 -> 33 ;
34 [label="gini = 0.444\nsamples = 3\nvalue = [0, 2, 1]"] ;
32 -> 34 ;
35 [label="gini = 0.0\nsamples = 1\nvalue = [0, 0, 1]"] ;
31 -> 35 ;
36 [label="sepal width <= 2.65\ngini = 0.32\nsamples = 5\nvalue = [0, 4, 1]"] ;
30 -> 36 ;
37 [label="gini = 0.0\nsamples = 1\nvalue = [0, 0, 1]"] ;
36 -> 37 ;
38 [label="gini = 0.0\nsamples = 4\nvalue = [0, 4, 0]"] ;
36 -> 38 ;
39 [label="gini = 0.0\nsamples = 1\nvalue = [0, 0, 1]"] ;
29 -> 39 ;
40 [label="gini = 0.0\nsamples = 2\nvalue = [0, 2, 0]"] ;
14 -> 40 ;
41 [label="gini = 0.0\nsamples = 1\nvalue = [1, 0, 0]"] ;
13 -> 41 ;
42 [label="sepal length <= 7.05\ngini = 0.337\nsamples = 42\nvalue = [0, 9, 33]"] ;
12 -> 42 ;
43 [label="sepal length <= 6.95\ngini = 0.404\nsamples = 32\nvalue = [0, 9, 23]"] ;
42 -> 43 ;
44 [label="sepal width <= 2.95\ngini = 0.383\nsamples = 31\nvalue = [0, 8, 23]"] ;
43 -> 44 ;
45 [label="sepal length <= 6.45\ngini = 0.473\nsamples = 13\nvalue = [0, 5, 8]"] ;
44 -> 45 ;
46 [label="sepal width <= 2.6\ngini = 0.346\nsamples = 9\nvalue = [0, 2, 7]"] ;
45 -> 46 ;
47 [label="gini = 0.5\nsamples = 2\nvalue = [0, 1, 1]"] ;
46 -> 47 ;
48 [label="sepal width <= 2.85\ngini = 0.245\nsamples = 7\nvalue = [0, 1, 6]"] ;
46 -> 48 ;
49 [label="gini = 0.0\nsamples = 5\nvalue = [0, 0, 5]"] ;
48 -> 49 ;
50 [label="sepal length <= 6.35\ngini = 0.5\nsamples = 2\nvalue = [0, 1, 1]"] ;
48 -> 50 ;
51 [label="gini = 0.0\nsamples = 1\nvalue = [0, 0, 1]"] ;
50 -> 51 ;
52 [label="gini = 0.0\nsamples = 1\nvalue = [0, 1, 0]"] ;
50 -> 52 ;
53 [label="sepal width <= 2.65\ngini = 0.375\nsamples = 4\nvalue = [0, 3, 1]"] ;
45 -> 53 ;
54 [label="gini = 0.0\nsamples = 1\nvalue = [0, 0, 1]"] ;
53 -> 54 ;
55 [label="gini = 0.0\nsamples = 3\nvalue = [0, 3, 0]"] ;
53 -> 55 ;
56 [label="sepal length <= 6.75\ngini = 0.278\nsamples = 18\nvalue = [0, 3, 15]"] ;
44 -> 56 ;
57 [label="sepal length <= 6.55\ngini = 0.337\nsamples = 14\nvalue = [0, 3, 11]"] ;
56 -> 57 ;
58 [label="sepal width <= 3.25\ngini = 0.219\nsamples = 8\nvalue = [0, 1, 7]"] ;
57 -> 58 ;
59 [label="gini = 0.0\nsamples = 4\nvalue = [0, 0, 4]"] ;
58 -> 59 ;
60 [label="sepal width <= 3.35\ngini = 0.375\nsamples = 4\nvalue = [0, 1, 3]"] ;
58 -> 60 ;
61 [label="gini = 0.5\nsamples = 2\nvalue = [0, 1, 1]"] ;
60 -> 61 ;
62 [label="gini = 0.0\nsamples = 2\nvalue = [0, 0, 2]"] ;
60 -> 62 ;
63 [label="sepal length <= 6.65\ngini = 0.444\nsamples = 6\nvalue = [0, 2, 4]"] ;
57 -> 63 ;
64 [label="gini = 0.0\nsamples = 1\nvalue = [0, 1, 0]"] ;
63 -> 64 ;
65 [label="sepal width <= 3.2\ngini = 0.32\nsamples = 5\nvalue = [0, 1, 4]"] ;
63 -> 65 ;
66 [label="sepal width <= 3.05\ngini = 0.444\nsamples = 3\nvalue = [0, 1, 2]"] ;
65 -> 66 ;
67 [label="gini = 0.0\nsamples = 1\nvalue = [0, 0, 1]"] ;
66 -> 67 ;
68 [label="gini = 0.5\nsamples = 2\nvalue = [0, 1, 1]"] ;
66 -> 68 ;
69 [label="gini = 0.0\nsamples = 2\nvalue = [0, 0, 2]"] ;
65 -> 69 ;
70 [label="gini = 0.0\nsamples = 4\nvalue = [0, 0, 4]"] ;
56 -> 70 ;
71 [label="gini = 0.0\nsamples = 1\nvalue = [0, 1, 0]"] ;
43 -> 71 ;
72 [label="gini = 0.0\nsamples = 10\nvalue = [0, 0, 10]"] ;
42 -> 72 ;
}
